digraph Tree {
node [shape=box] ;
0 [label="Sale <= 0.0\nentropy = 0.992\nsamples = 29\nvalue = [16, 13]"] ;
1 [label="Weekend <= 0.0\nentropy = 0.323\nsamples = 17\nvalue = [16, 1]"] ;
0 -> 1 [labeldistance=2.5, labelangle=45, headlabel="True"] ;
2 [label="entropy = 0.0\nsamples = 16\nvalue = [16, 0]"] ;
1 -> 2 ;
3 [label="entropy = 0.0\nsamples = 1\nvalue = [0, 1]"] ;
1 -> 3 ;
4 [label="entropy = 0.0\nsamples = 12\nvalue = [0, 12]"] ;
0 -> 4 [labeldistance=2.5, labelangle=-45, headlabel="False"] ;
}